<?xml version="1.0"?>
<opencv_storage>
<cascade>
  <stageType>BOOST</stageType>
  <featureType>HAAR</featureType>
  <height>24</height>
  <width>24</width>
  <stageParams>
    <boostType>GAB</boostType>
    <minHitRate>9.9500000476837158e-01</minHitRate>
    <maxFalseAlarm>5.0000000000000000e-01</maxFalseAlarm>
    <weightTrimRate>9.4999998807907104e-01</weightTrimRate>
    <maxDepth>1</maxDepth>
    <maxWeakCount>100</maxWeakCount></stageParams>
  <featureParams>
    <maxCatCount>0</maxCatCount>
    <featSize>1</featSize>
    <mode>BASIC</mode></featureParams>
  <stageNum>20</stageNum>
  <stages>
    <!-- stage 0 -->
    <_>
      <maxWeakCount>3</maxWeakCount>
      <stageThreshold>-8.4812521934509277e-01</stageThreshold>
      <weakClassifiers>
        <_>
          <internalNodes>
            0 -1 56 -1.3860172592103481e-02</internalNodes>
          <leafValues>
            7.8861790895462036e-01 -9.2000001668930054e-01</leafValues></_>
        <_>
          <internalNodes>
            0 -1 12 -8.9843496680259705e-02</internalNodes>
          <leafValues>
            8.0750977993011475e-01 -7.0906597375869751e-01</leafValues></_>
        <_>
          <internalNodes>
            0 -1 44 1.6656003892421722e-02</internalNodes>
          <leafValues>
            -6.5460157394409180e-01 7.8094077110290527e-01</leafValues></_></weakClassifiers></_>
    <!-- stage 1 -->
    <_>
      <maxWeakCount>5</maxWeakCount>
      <stageThreshold>-2.2228148579597473e-01</stageThreshold>
      <weakClassifiers>
        <_>
          <internalNodes>
            0 -1 32 -1.1138508468866348e-01</internalNodes>
          <leafValues>
            9.3617022037506104e-01 -5.7692307233810425e-01</leafValues></_>
        <_>
          <internalNodes>
            0 -1 37 -3.2655555754899979e-02</internalNodes>
          <leafValues>
            7.7994918823242188e-01 -6.0573720932006836e-01</leafValues></_>
        <_>
          <internalNodes>
            0 -1 13 -2.1384462714195251e-02</internalNodes>
          <leafValues>
            9.2654097080230713e-01 -3.9789059758186340e-01</leafValues></_>
        <_>
          <internalNodes>
            0 -1 5 7.8214006498456001e-03</internalNodes>
          <leafValues>
            -8.4590238332748413e-01 5.6395894289016724e-01</leafValues></_>
        <_>
          <internalNodes>
            0 -1 51 9.3781612813472748e-03</internalNodes>
          <leafValues>
            -4.9951004981994629e-01 8.7974017858505249e-01</leafValues></_></weakClassifiers></_>
    <!-- stage 2 -->
    <_>
      <maxWeakCount>5</maxWeakCount>
      <stageThreshold>-6.7309612035751343e-01</stageThreshold>
      <weakClassifiers>
        <_>
          <internalNodes>
            0 -1 46 -1.4583854377269745e-01</internalNodes>
          <leafValues>
            8.6666667461395264e-01 -6.7741936445236206e-01</leafValues></_>
        <_>
          <internalNodes>
            0 -1 24 -6.7183628678321838e-02</internalNodes>
          <leafValues>
            7.1176367998123169e-01 -6.3201874494552612e-01</leafValues></_>
        <_>
          <internalNodes>
            0 -1 67 -1.1740759015083313e-02</internalNodes>
          <leafValues>
            7.8876954317092896e-01 -5.1874941587448120e-01</leafValues></_>
        <_>
          <internalNodes>
            0 -1 38 8.2983389496803284e-02</internalNodes>
          <leafValues>
            -6.1835300922393799e-01 6.6843152046203613e-01</leafValues></_>
        <_>
          <internalNodes>
            0 -1 75 -6.1821297276765108e-04</internalNodes>
          <leafValues>
            -8.5141992568969727e-01 4.8665991425514221e-01</leafValues></_></weakClassifiers></_>
    <!-- stage 3 -->
    <_>
      <maxWeakCount>4</maxWeakCount>
      <stageThreshold>-2.1796981990337372e-01</stageThreshold>
      <weakClassifiers>
        <_>
          <internalNodes>
            0 -1 48 -7.7400602400302887e-02</internalNodes>
          <leafValues>
            9.1489362716674805e-01 -5.5769228935241699e-01</leafValues></_>
        <_>
          <internalNodes>
            0 -1 55 9.3496516346931458e-02</internalNodes>
          <leafValues>
            -4.9160546064376831e-01 7.3561280965805054e-01</leafValues></_>
        <_>
          <internalNodes>
            0 -1 60 -3.5234235227108002e-02</internalNodes>
          <leafValues>
            5.1702857017517090e-01 -7.7962034940719604e-01</leafValues></_>
        <_>
          <internalNodes>
            0 -1 4 -2.0389268174767494e-03</internalNodes>
          <leafValues>
            -8.8761562108993530e-01 3.8373002409934998e-01</leafValues></_></weakClassifiers></_>
    <!-- stage 4 -->
    <_>
      <maxWeakCount>5</maxWeakCount>
      <stageThreshold>-8.8422983884811401e-01</stageThreshold>
      <weakClassifiers>
        <_>
          <internalNodes>
            0 -1 22 -2.2657115757465363e-01</internalNodes>
          <leafValues>
            8.7234044075012207e-01 -5.1923078298568726e-01</leafValues></_>
        <_>
          <internalNodes>
            0 -1 3 6.6782761132344604e-04</internalNodes>
          <leafValues>
            4.5549547672271729e-01 -9.4937920570373535e-01</leafValues></_>
        <_>
          <internalNodes>
            0 -1 43 -1.1161230504512787e-01</internalNodes>
          <leafValues>
            9.1890597343444824e-01 -4.1034302115440369e-01</leafValues></_>
        <_>
          <internalNodes>
            0 -1 29 -6.8580522201955318e-04</internalNodes>
          <leafValues>
            -8.0290520191192627e-01 4.9837437272071838e-01</leafValues></_>
        <_>
          <internalNodes>
            0 -1 73 -1.7904927954077721e-03</internalNodes>
          <leafValues>
            -8.8900488615036011e-01 3.9275366067886353e-01</leafValues></_></weakClassifiers></_>
    <!-- stage 5 -->
    <_>
      <maxWeakCount>2</maxWeakCount>
      <stageThreshold>-1.3834123499691486e-02</stageThreshold>
      <weakClassifiers>
        <_>
          <internalNodes>
            0 -1 33 -1.7019355297088623e-01</internalNodes>
          <leafValues>
            9.5505619049072266e-01 -5.2293580770492554e-01</leafValues></_>
        <_>
          <internalNodes>
            0 -1 17 -5.6586787104606628e-04</internalNodes>
          <leafValues>
            -8.7896072864532471e-01 5.0910162925720215e-01</leafValues></_></weakClassifiers></_>
    <!-- stage 6 -->
    <_>
      <maxWeakCount>3</maxWeakCount>
      <stageThreshold>-4.1820552945137024e-01</stageThreshold>
      <weakClassifiers>
        <_>
          <internalNodes>
            0 -1 34 -8.9216232299804688e-02</internalNodes>
          <leafValues>
            8.9361703395843506e-01 -5.3846156597137451e-01</leafValues></_>
        <_>
          <internalNodes>
            0 -1 57 -3.7421233952045441e-02</internalNodes>
          <leafValues>
            9.5256745815277100e-01 -3.2395577430725098e-01</leafValues></_>
        <_>
          <internalNodes>
            0 -1 28 -4.8682020860724151e-04</internalNodes>
          <leafValues>
            -8.3231145143508911e-01 5.6244874000549316e-01</leafValues></_></weakClassifiers></_>
    <!-- stage 7 -->
    <_>
      <maxWeakCount>5</maxWeakCount>
      <stageThreshold>-1.5925304591655731e-01</stageThreshold>
      <weakClassifiers>
        <_>
          <internalNodes>
            0 -1 50 -2.5739220902323723e-02</internalNodes>
          <leafValues>
            1. -3.6000001430511475e-01</leafValues></_>
        <_>
          <internalNodes>
            0 -1 68 -1.6657251864671707e-02</internalNodes>
          <leafValues>
            9.7319632768630981e-01 -2.8192323446273804e-01</leafValues></_>
        <_>
          <internalNodes>
            0 -1 1 6.1488238861784339e-04</internalNodes>
          <leafValues>
            4.9491864442825317e-01 -8.4277248382568359e-01</leafValues></_>
        <_>
          <internalNodes>
            0 -1 40 9.8392404615879059e-03</internalNodes>
          <leafValues>
            -4.0670794248580933e-01 9.1148936748504639e-01</leafValues></_>
        <_>
          <internalNodes>
            0 -1 21 -6.1334663769230247e-04</internalNodes>
          <leafValues>
            -9.5203214883804321e-01 4.1395324468612671e-01</leafValues></_></weakClassifiers></_>
    <!-- stage 8 -->
    <_>
      <maxWeakCount>2</maxWeakCount>
      <stageThreshold>1.3497050106525421e-01</stageThreshold>
      <weakClassifiers>
        <_>
          <internalNodes>
            0 -1 61 -2.3139720782637596e-02</internalNodes>
          <leafValues>
            9.4999998807907104e-01 -4.0677964687347412e-01</leafValues></_>
        <_>
          <internalNodes>
            0 -1 63 2.1836641244590282e-03</internalNodes>
          <leafValues>
            5.4175013303756714e-01 -7.0364516973495483e-01</leafValues></_></weakClassifiers></_>
    <!-- stage 9 -->
    <_>
      <maxWeakCount>5</maxWeakCount>
      <stageThreshold>-7.3123681545257568e-01</stageThreshold>
      <weakClassifiers>
        <_>
          <internalNodes>
            0 -1 36 -1.4564158022403717e-01</internalNodes>
          <leafValues>
            1. -3.9344263076782227e-01</leafValues></_>
        <_>
          <internalNodes>
            0 -1 64 -1.3819671003147960e-03</internalNodes>
          <leafValues>
            -7.2535794973373413e-01 5.8320111036300659e-01</leafValues></_>
        <_>
          <internalNodes>
            0 -1 66 4.9140851479023695e-04</internalNodes>
          <leafValues>
            3.8792258501052856e-01 -9.3427568674087524e-01</leafValues></_>
        <_>
          <internalNodes>
            0 -1 47 -4.2477175593376160e-02</internalNodes>
          <leafValues>
            9.5766830444335938e-01 -4.3590658903121948e-01</leafValues></_>
        <_>
          <internalNodes>
            0 -1 18 4.3745408765971661e-04</internalNodes>
          <leafValues>
            4.4918698072433472e-01 -8.8666611909866333e-01</leafValues></_></weakClassifiers></_>
    <!-- stage 10 -->
    <_>
      <maxWeakCount>4</maxWeakCount>
      <stageThreshold>-1.6754914820194244e-01</stageThreshold>
      <weakClassifiers>
        <_>
          <internalNodes>
            0 -1 25 -1.2393978238105774e-01</internalNodes>
          <leafValues>
            9.5238095521926880e-01 -4.5614033937454224e-01</leafValues></_>
        <_>
          <internalNodes>
            0 -1 62 -3.1816796399652958e-03</internalNodes>
          <leafValues>
            -7.8878331184387207e-01 5.5947417020797729e-01</leafValues></_>
        <_>
          <internalNodes>
            0 -1 54 -2.7549833059310913e-02</internalNodes>
          <leafValues>
            6.1524969339370728e-01 -5.8025187253952026e-01</leafValues></_>
        <_>
          <internalNodes>
            0 -1 70 -3.6026530433446169e-03</internalNodes>
          <leafValues>
            -8.6944949626922607e-01 4.6212479472160339e-01</leafValues></_></weakClassifiers></_>
    <!-- stage 11 -->
    <_>
      <maxWeakCount>3</maxWeakCount>
      <stageThreshold>-3.6676558852195740e-01</stageThreshold>
      <weakClassifiers>
        <_>
          <internalNodes>
            0 -1 39 1.7390448600053787e-02</internalNodes>
          <leafValues>
            -4.1592919826507568e-01 8.8235294818878174e-01</leafValues></_>
        <_>
          <internalNodes>
            0 -1 69 1.1753637809306383e-03</internalNodes>
          <leafValues>
            4.4791266322135925e-01 -9.2881792783737183e-01</leafValues></_>
        <_>
          <internalNodes>
            0 -1 49 -7.0438429713249207e-02</internalNodes>
          <leafValues>
            9.1486364603042603e-01 -3.9874905347824097e-01</leafValues></_></weakClassifiers></_>
    <!-- stage 12 -->
    <_>
      <maxWeakCount>3</maxWeakCount>
      <stageThreshold>-7.5851428508758545e-01</stageThreshold>
      <weakClassifiers>
        <_>
          <internalNodes>
            0 -1 15 -2.0164051651954651e-01</internalNodes>
          <leafValues>
            9.0476191043853760e-01 -7.2043013572692871e-01</leafValues></_>
        <_>
          <internalNodes>
            0 -1 59 5.1270434632897377e-03</internalNodes>
          <leafValues>
            -4.9522987008094788e-01 8.1231081485748291e-01</leafValues></_>
        <_>
          <internalNodes>
            0 -1 0 -3.3959388732910156e-02</internalNodes>
          <leafValues>
            -9.5266681909561157e-01 4.5714566111564636e-01</leafValues></_></weakClassifiers></_>
    <!-- stage 13 -->
    <_>
      <maxWeakCount>2</maxWeakCount>
      <stageThreshold>-1.5013130009174347e-01</stageThreshold>
      <weakClassifiers>
        <_>
          <internalNodes>
            0 -1 2 -2.0231178402900696e-01</internalNodes>
          <leafValues>
            9.2156863212585449e-01 -6.8750000000000000e-01</leafValues></_>
        <_>
          <internalNodes>
            0 -1 74 -4.1730451630428433e-04</internalNodes>
          <leafValues>
            -8.7816852331161499e-01 5.3736871480941772e-01</leafValues></_></weakClassifiers></_>
    <!-- stage 14 -->
    <_>
      <maxWeakCount>4</maxWeakCount>
      <stageThreshold>-1.7397628724575043e-01</stageThreshold>
      <weakClassifiers>
        <_>
          <internalNodes>
            0 -1 16 -2.2649368643760681e-01</internalNodes>
          <leafValues>
            8.4158414602279663e-01 -5.8762884140014648e-01</leafValues></_>
        <_>
          <internalNodes>
            0 -1 71 8.4888283163309097e-04</internalNodes>
          <leafValues>
            4.4107148051261902e-01 -8.3249104022979736e-01</leafValues></_>
        <_>
          <internalNodes>
            0 -1 35 -7.9360097646713257e-02</internalNodes>
          <leafValues>
            8.7224107980728149e-01 -4.2066702246665955e-01</leafValues></_>
        <_>
          <internalNodes>
            0 -1 6 9.7043882124125957e-04</internalNodes>
          <leafValues>
            3.9324811100959778e-01 -8.8310158252716064e-01</leafValues></_></weakClassifiers></_>
    <!-- stage 15 -->
    <_>
      <maxWeakCount>2</maxWeakCount>
      <stageThreshold>5.0161976367235184e-02</stageThreshold>
      <weakClassifiers>
        <_>
          <internalNodes>
            0 -1 30 -1.5694236755371094e-01</internalNodes>
          <leafValues>
            8.8888889551162720e-01 -4.8148149251937866e-01</leafValues></_>
        <_>
          <internalNodes>
            0 -1 71 -9.1108772903680801e-04</internalNodes>
          <leafValues>
            -7.4169456958770752e-01 5.3164345026016235e-01</leafValues></_></weakClassifiers></_>
    <!-- stage 16 -->
    <_>
      <maxWeakCount>5</maxWeakCount>
      <stageThreshold>-2.0514325797557831e-01</stageThreshold>
      <weakClassifiers>
        <_>
          <internalNodes>
            0 -1 41 -4.8189945518970490e-02</internalNodes>
          <leafValues>
            9.7222220897674561e-01 -3.3333334326744080e-01</leafValues></_>
        <_>
          <internalNodes>
            0 -1 20 2.1289857104420662e-02</internalNodes>
          <leafValues>
            -2.9769256711006165e-01 8.3053958415985107e-01</leafValues></_>
        <_>
          <internalNodes>
            0 -1 72 8.7173481006175280e-04</internalNodes>
          <leafValues>
            4.0864655375480652e-01 -8.6967694759368896e-01</leafValues></_>
        <_>
          <internalNodes>
            0 -1 9 5.6423447094857693e-03</internalNodes>
          <leafValues>
            -4.3010634183883667e-01 9.4068360328674316e-01</leafValues></_>
        <_>
          <internalNodes>
            0 -1 10 -7.7665643766522408e-04</internalNodes>
          <leafValues>
            -8.5821312665939331e-01 4.8203510046005249e-01</leafValues></_></weakClassifiers></_>
    <!-- stage 17 -->
    <_>
      <maxWeakCount>5</maxWeakCount>
      <stageThreshold>-3.5656851530075073e-01</stageThreshold>
      <weakClassifiers>
        <_>
          <internalNodes>
            0 -1 31 -3.5864360630512238e-02</internalNodes>
          <leafValues>
            9.3023258447647095e-01 -4.6428570151329041e-01</leafValues></_>
        <_>
          <internalNodes>
            0 -1 14 6.3400506973266602e-02</internalNodes>
          <leafValues>
            4.7993749380111694e-01 -8.0094558000564575e-01</leafValues></_>
        <_>
          <internalNodes>
            0 -1 45 8.4287552163004875e-03</internalNodes>
          <leafValues>
            -3.8676720857620239e-01 9.1807764768600464e-01</leafValues></_>
        <_>
          <internalNodes>
            0 -1 53 1.4391550794243813e-02</internalNodes>
          <leafValues>
            -3.5701656341552734e-01 8.9191740751266479e-01</leafValues></_>
        <_>
          <internalNodes>
            0 -1 19 6.5591419115662575e-03</internalNodes>
          <leafValues>
            5.1664721965789795e-01 -8.7737047672271729e-01</leafValues></_></weakClassifiers></_>
    <!-- stage 18 -->
    <_>
      <maxWeakCount>4</maxWeakCount>
      <stageThreshold>-1.9141159951686859e-02</stageThreshold>
      <weakClassifiers>
        <_>
          <internalNodes>
            0 -1 58 1.6757708042860031e-02</internalNodes>
          <leafValues>
            -4.4444444775581360e-01 8.4444445371627808e-01</leafValues></_>
        <_>
          <internalNodes>
            0 -1 23 8.2818162627518177e-04</internalNodes>
          <leafValues>
            -3.7832519412040710e-01 7.7535659074783325e-01</leafValues></_>
        <_>
          <internalNodes>
            0 -1 65 -7.7939237235113978e-04</internalNodes>
          <leafValues>
            -7.0049256086349487e-01 4.7862857580184937e-01</leafValues></_>
        <_>
          <internalNodes>
            0 -1 7 2.9115267097949982e-03</internalNodes>
          <leafValues>
            3.5043925046920776e-01 -8.2258230447769165e-01</leafValues></_></weakClassifiers></_>
    <!-- stage 19 -->
    <_>
      <maxWeakCount>6</maxWeakCount>
      <stageThreshold>-7.8311198949813843e-01</stageThreshold>
      <weakClassifiers>
        <_>
          <internalNodes>
            0 -1 26 2.1361969411373138e-02</internalNodes>
          <leafValues>
            -5.1020407676696777e-01 7.7999997138977051e-01</leafValues></_>
        <_>
          <internalNodes>
            0 -1 52 1.6719520092010498e-02</internalNodes>
          <leafValues>
            -4.1618609428405762e-01 7.2411054372787476e-01</leafValues></_>
        <_>
          <internalNodes>
            0 -1 11 -9.6907339990139008e-02</internalNodes>
          <leafValues>
            -7.8786718845367432e-01 4.6641847491264343e-01</leafValues></_>
        <_>
          <internalNodes>
            0 -1 42 8.2281026989221573e-03</internalNodes>
          <leafValues>
            -3.7926539778709412e-01 9.3391722440719604e-01</leafValues></_>
        <_>
          <internalNodes>
            0 -1 27 1.0346798226237297e-02</internalNodes>
          <leafValues>
            -3.3387914299964905e-01 8.7220698595046997e-01</leafValues></_>
        <_>
          <internalNodes>
            0 -1 8 1.8049880163744092e-03</internalNodes>
          <leafValues>
            3.9000418782234192e-01 -8.7400352954864502e-01</leafValues></_></weakClassifiers></_></stages>
  <features>
    <_>
      <rects>
        <_>
          0 2 3 21 -1.</_>
        <_>
          0 9 3 7 3.</_></rects>
      <tilted>0</tilted></_>
    <_>
      <rects>
        <_>
          0 3 2 4 -1.</_>
        <_>
          0 3 1 2 2.</_>
        <_>
          1 5 1 2 2.</_></rects>
      <tilted>0</tilted></_>
    <_>
      <rects>
        <_>
          0 4 21 15 -1.</_>
        <_>
          7 4 7 15 3.</_></rects>
      <tilted>0</tilted></_>
    <_>
      <rects>
        <_>
          0 5 2 4 -1.</_>
        <_>
          0 5 1 2 2.</_>
        <_>
          1 7 1 2 2.</_></rects>
      <tilted>0</tilted></_>
    <_>
      <rects>
        <_>
          0 6 1 9 -1.</_>
        <_>
          0 9 1 3 3.</_></rects>
      <tilted>0</tilted></_>
    <_>
      <rects>
        <_>
          0 10 12 12 -1.</_>
        <_>
          0 10 6 6 2.</_>
        <_>
          6 16 6 6 2.</_></rects>
      <tilted>0</tilted></_>
    <_>
      <rects>
        <_>
          0 11 1 4 -1.</_>
        <_>
          0 13 1 2 2.</_></rects>
      <tilted>0</tilted></_>
    <_>
      <rects>
        <_>
          0 16 23 3 -1.</_>
        <_>
          0 17 23 1 3.</_></rects>
      <tilted>0</tilted></_>
    <_>
      <rects>
        <_>
          1 7 1 9 -1.</_>
        <_>
          1 10 1 3 3.</_></rects>
      <tilted>0</tilted></_>
    <_>
      <rects>
        <_>
          1 11 19 3 -1.</_>
        <_>
          1 12 19 1 3.</_></rects>
      <tilted>0</tilted></_>
    <_>
      <rects>
        <_>
          1 20 6 1 -1.</_>
        <_>
          3 20 2 1 3.</_></rects>
      <tilted>0</tilted></_>
    <_>
      <rects>
        <_>
          2 1 22 22 -1.</_>
        <_>
          2 1 11 11 2.</_>
        <_>
          13 12 11 11 2.</_></rects>
      <tilted>0</tilted></_>
    <_>
      <rects>
        <_>
          2 5 12 13 -1.</_>
        <_>
          8 5 6 13 2.</_></rects>
      <tilted>0</tilted></_>
    <_>
      <rects>
        <_>
          2 10 14 6 -1.</_>
        <_>
          2 12 14 2 3.</_></rects>
      <tilted>0</tilted></_>
    <_>
      <rects>
        <_>
          3 0 18 22 -1.</_>
        <_>
          3 0 9 11 2.</_>
        <_>
          12 11 9 11 2.</_></rects>
      <tilted>0</tilted></_>
    <_>
      <rects>
        <_>
          3 2 21 18 -1.</_>
        <_>
          10 2 7 18 3.</_></rects>
      <tilted>0</tilted></_>
    <_>
      <rects>
        <_>
          3 4 18 16 -1.</_>
        <_>
          9 4 6 16 3.</_></rects>
      <tilted>0</tilted></_>
    <_>
      <rects>
        <_>
          3 18 2 4 -1.</_>
        <_>
          3 18 1 2 2.</_>
        <_>
          4 20 1 2 2.</_></rects>
      <tilted>0</tilted></_>
    <_>
      <rects>
        <_>
          3 21 6 1 -1.</_>
        <_>
          5 21 2 1 3.</_></rects>
      <tilted>0</tilted></_>
    <_>
      <rects>
        <_>
          4 1 4 21 -1.</_>
        <_>
          4 8 4 7 3.</_></rects>
      <tilted>0</tilted></_>
    <_>
      <rects>
        <_>
          4 12 7 4 -1.</_>
        <_>
          4 14 7 2 2.</_></rects>
      <tilted>0</tilted></_>
    <_>
      <rects>
        <_>
          4 18 2 4 -1.</_>
        <_>
          4 18 1 2 2.</_>
        <_>
          5 20 1 2 2.</_></rects>
      <tilted>0</tilted></_>
    <_>
      <rects>
        <_>
          5 4 16 15 -1.</_>
        <_>
          5 9 16 5 3.</_></rects>
      <tilted>0</tilted></_>
    <_>
      <rects>
        <_>
          5 5 8 10 -1.</_>
        <_>
          5 5 4 5 2.</_>
        <_>
          9 10 4 5 2.</_></rects>
      <tilted>0</tilted></_>
    <_>
      <rects>
        <_>
          5 6 15 13 -1.</_>
        <_>
          10 6 5 13 3.</_></rects>
      <tilted>0</tilted></_>
    <_>
      <rects>
        <_>
          5 7 15 9 -1.</_>
        <_>
          5 10 15 3 3.</_></rects>
      <tilted>0</tilted></_>
    <_>
      <rects>
        <_>
          5 11 5 12 -1.</_>
        <_>
          5 15 5 4 3.</_></rects>
      <tilted>0</tilted></_>
    <_>
      <rects>
        <_>
          5 11 7 6 -1.</_>
        <_>
          5 13 7 2 3.</_></rects>
      <tilted>0</tilted></_>
    <_>
      <rects>
        <_>
          5 16 2 6 -1.</_>
        <_>
          5 16 1 3 2.</_>
        <_>
          6 19 1 3 2.</_></rects>
      <tilted>0</tilted></_>
    <_>
      <rects>
        <_>
          6 1 2 6 -1.</_>
        <_>
          6 1 1 3 2.</_>
        <_>
          7 4 1 3 2.</_></rects>
      <tilted>0</tilted></_>
    <_>
      <rects>
        <_>
          6 4 12 13 -1.</_>
        <_>
          10 4 4 13 3.</_></rects>
      <tilted>0</tilted></_>
    <_>
      <rects>
        <_>
          6 6 3 12 -1.</_>
        <_>
          6 10 3 4 3.</_></rects>
      <tilted>0</tilted></_>
    <_>
      <rects>
        <_>
          6 6 11 12 -1.</_>
        <_>
          6 10 11 4 3.</_></rects>
      <tilted>0</tilted></_>
    <_>
      <rects>
        <_>
          6 6 15 12 -1.</_>
        <_>
          6 10 15 4 3.</_></rects>
      <tilted>0</tilted></_>
    <_>
      <rects>
        <_>
          6 7 12 8 -1.</_>
        <_>
          10 7 4 8 3.</_></rects>
      <tilted>0</tilted></_>
    <_>
      <rects>
        <_>
          6 7 8 16 -1.</_>
        <_>
          10 7 4 16 2.</_></rects>
      <tilted>0</tilted></_>
    <_>
      <rects>
        <_>
          6 7 16 9 -1.</_>
        <_>
          6 10 16 3 3.</_></rects>
      <tilted>0</tilted></_>
    <_>
      <rects>
        <_>
          6 8 12 6 -1.</_>
        <_>
          10 8 4 6 3.</_></rects>
      <tilted>0</tilted></_>
    <_>
      <rects>
        <_>
          6 10 15 12 -1.</_>
        <_>
          6 16 15 6 2.</_></rects>
      <tilted>0</tilted></_>
    <_>
      <rects>
        <_>
          6 11 3 6 -1.</_>
        <_>
          6 14 3 3 2.</_></rects>
      <tilted>0</tilted></_>
    <_>
      <rects>
        <_>
          6 11 4 6 -1.</_>
        <_>
          6 13 4 2 3.</_></rects>
      <tilted>0</tilted></_>
    <_>
      <rects>
        <_>
          7 5 9 4 -1.</_>
        <_>
          10 5 3 4 3.</_></rects>
      <tilted>0</tilted></_>
    <_>
      <rects>
        <_>
          7 6 6 3 -1.</_>
        <_>
          9 6 2 3 3.</_></rects>
      <tilted>0</tilted></_>
    <_>
      <rects>
        <_>
          7 7 9 13 -1.</_>
        <_>
          10 7 3 13 3.</_></rects>
      <tilted>0</tilted></_>
    <_>
      <rects>
        <_>
          7 10 4 8 -1.</_>
        <_>
          7 14 4 4 2.</_></rects>
      <tilted>0</tilted></_>
    <_>
      <rects>
        <_>
          7 13 6 6 -1.</_>
        <_>
          9 13 2 6 3.</_></rects>
      <tilted>0</tilted></_>
    <_>
      <rects>
        <_>
          8 3 10 18 -1.</_>
        <_>
          8 9 10 6 3.</_></rects>
      <tilted>0</tilted></_>
    <_>
      <rects>
        <_>
          8 4 4 15 -1.</_>
        <_>
          10 4 2 15 2.</_></rects>
      <tilted>0</tilted></_>
    <_>
      <rects>
        <_>
          8 7 13 9 -1.</_>
        <_>
          8 10 13 3 3.</_></rects>
      <tilted>0</tilted></_>
    <_>
      <rects>
        <_>
          8 14 9 6 -1.</_>
        <_>
          11 14 3 6 3.</_></rects>
      <tilted>0</tilted></_>
    <_>
      <rects>
        <_>
          8 15 9 2 -1.</_>
        <_>
          11 15 3 2 3.</_></rects>
      <tilted>0</tilted></_>
    <_>
      <rects>
        <_>
          9 3 6 11 -1.</_>
        <_>
          11 3 2 11 3.</_></rects>
      <tilted>0</tilted></_>
    <_>
      <rects>
        <_>
          10 0 9 12 -1.</_>
        <_>
          13 0 3 12 3.</_></rects>
      <tilted>0</tilted></_>
    <_>
      <rects>
        <_>
          10 12 6 7 -1.</_>
        <_>
          12 12 2 7 3.</_></rects>
      <tilted>0</tilted></_>
    <_>
      <rects>
        <_>
          11 0 2 14 -1.</_>
        <_>
          11 7 2 7 2.</_></rects>
      <tilted>0</tilted></_>
    <_>
      <rects>
        <_>
          11 5 12 16 -1.</_>
        <_>
          17 5 6 16 2.</_></rects>
      <tilted>0</tilted></_>
    <_>
      <rects>
        <_>
          11 6 5 12 -1.</_>
        <_>
          11 10 5 4 3.</_></rects>
      <tilted>0</tilted></_>
    <_>
      <rects>
        <_>
          11 9 8 6 -1.</_>
        <_>
          11 11 8 2 3.</_></rects>
      <tilted>0</tilted></_>
    <_>
      <rects>
        <_>
          11 14 6 3 -1.</_>
        <_>
          14 14 3 3 2.</_></rects>
      <tilted>0</tilted></_>
    <_>
      <rects>
        <_>
          12 6 6 15 -1.</_>
        <_>
          14 6 2 15 3.</_></rects>
      <tilted>0</tilted></_>
    <_>
      <rects>
        <_>
          13 3 10 21 -1.</_>
        <_>
          13 10 10 7 3.</_></rects>
      <tilted>0</tilted></_>
    <_>
      <rects>
        <_>
          14 9 4 6 -1.</_>
        <_>
          14 11 4 2 3.</_></rects>
      <tilted>0</tilted></_>
    <_>
      <rects>
        <_>
          14 19 6 5 -1.</_>
        <_>
          16 19 2 5 3.</_></rects>
      <tilted>0</tilted></_>
    <_>
      <rects>
        <_>
          14 20 6 4 -1.</_>
        <_>
          16 20 2 4 3.</_></rects>
      <tilted>0</tilted></_>
    <_>
      <rects>
        <_>
          14 21 6 2 -1.</_>
        <_>
          16 21 2 2 3.</_></rects>
      <tilted>0</tilted></_>
    <_>
      <rects>
        <_>
          15 5 1 4 -1.</_>
        <_>
          15 7 1 2 2.</_></rects>
      <tilted>0</tilted></_>
    <_>
      <rects>
        <_>
          15 7 2 2 -1.</_>
        <_>
          15 7 1 1 2.</_>
        <_>
          16 8 1 1 2.</_></rects>
      <tilted>0</tilted></_>
    <_>
      <rects>
        <_>
          15 7 2 9 -1.</_>
        <_>
          15 10 2 3 3.</_></rects>
      <tilted>0</tilted></_>
    <_>
      <rects>
        <_>
          15 8 5 4 -1.</_>
        <_>
          15 10 5 2 2.</_></rects>
      <tilted>0</tilted></_>
    <_>
      <rects>
        <_>
          17 21 4 1 -1.</_>
        <_>
          19 21 2 1 2.</_></rects>
      <tilted>0</tilted></_>
    <_>
      <rects>
        <_>
          19 0 2 12 -1.</_>
        <_>
          19 4 2 4 3.</_></rects>
      <tilted>0</tilted></_>
    <_>
      <rects>
        <_>
          20 1 4 4 -1.</_>
        <_>
          20 1 2 2 2.</_>
        <_>
          22 3 2 2 2.</_></rects>
      <tilted>0</tilted></_>
    <_>
      <rects>
        <_>
          21 14 1 4 -1.</_>
        <_>
          21 16 1 2 2.</_></rects>
      <tilted>0</tilted></_>
    <_>
      <rects>
        <_>
          22 18 1 6 -1.</_>
        <_>
          22 20 1 2 3.</_></rects>
      <tilted>0</tilted></_>
    <_>
      <rects>
        <_>
          23 7 1 2 -1.</_>
        <_>
          23 8 1 1 2.</_></rects>
      <tilted>0</tilted></_>
    <_>
      <rects>
        <_>
          23 11 1 6 -1.</_>
        <_>
          23 13 1 2 3.</_></rects>
      <tilted>0</tilted></_></features></cascade>
</opencv_storage>
